#ifndef DENSE_H
#define DENSE_H

#define LSTM1_UNITS 64  // Input size to the dense layer
#define DENSE_UNITS 4   // Output size of the dense layer

// Declare weights and biases (defined elsewhere)
//extern float dense_weights[LSTM1_UNITS][DENSE_UNITS];  // Weights of size 64 x 4
//extern float dense_bias[DENSE_UNITS];                  // Bias of size 4

static  float dense_weights[LSTM1_UNITS][DENSE_UNITS]={{-0.020697292, 0.011849695, -0.28375942, 0.12812907}, {-0.12696852, 0.21792611, 0.2982077, 0.09864466}, {-0.0622457, -0.14948688, 0.21219757, -0.11133008}, {0.063987166, -0.3257157, 0.12989146, -0.31744936}, {0.186788, 0.08981862, -0.10761757, -0.28967583}, {0.04940475, 0.018609485, -0.31723842, 0.032821592}, {0.04336605, -0.09823455, 0.019284256, 0.27024683}, {-0.32800412, 0.08222237, 0.14972967, -0.12507777}, {-0.015745685, 0.26768458, 0.29990643, 0.16027471}, {-0.33063534, -0.27401495, 0.2853909, -0.05227335}, {-0.25498173, 0.28741646, -0.2993629, -0.15667722}, {-0.13739358, 0.12543646, 0.21085504, -0.2265289}, {-0.37123102, -0.23142774, -0.24899614, 0.2652808}, {-0.1663346, 0.024734024, 0.20828569, 0.20503755}, {-0.32526213, -0.18502925, 0.07488998, 0.15289274}, {-0.31808394, 0.09684637, -0.28318512, 0.05001821}, {0.219742, -0.0074558477, 0.10193187, -0.09270328}, {-0.16897024, -0.15102391, -0.0043059667, 0.21143095}, {-0.22064114, 0.055369977, 0.11899356, 0.025813268}, {0.063452855, -0.011122529, 0.09698942, 0.2691373}, {-0.18093993, 0.13126062, 0.15732482, 0.15579742}, {-0.33699748, 0.17710528, 0.29228374, -0.30552387}, {0.30507338, -0.09589613, -0.11973109, 0.22862072}, {-0.28313413, -0.08019532, 0.077461466, -0.26925957}, {0.07571069, -0.044395342, -0.21535882, 0.10541906}, {-0.1448358, -0.033587888, 0.029584218, 0.3083034}, {-0.26523528, -0.10563886, -0.3242449, -0.05448449}, {0.18850711, 0.23808336, 0.2903922, -0.29449397}, {-0.1223876, 0.04504665, -0.28677922, -0.18473393}, {0.4265698, -0.21937416, -0.03163459, 0.15638281}, {-0.03317583, 0.12517585, 0.17900518, 0.26165688}, {0.38048294, -0.26319605, -0.03844882, 0.23254097}, {0.39429247, 0.027300965, 0.012940118, -0.3188849}, {0.1811645, 0.054282796, -0.18114404, 0.17605534}, {0.042792667, 0.20724477, 0.31178033, 0.022826377}, {0.26826507, 0.0527146, 0.13836813, 0.1475613}, {-0.13666421, -0.28631943, -0.08851553, -0.1814129}, {-0.05632982, 0.18001434, 0.19118497, 0.056718256}, {-0.2651247, 0.28294468, 0.10791135, -0.124475695}, {0.20072566, -0.21786536, 0.12981582, -0.06879066}, {0.056125287, 0.12904446, 0.17236999, 0.28316492}, {0.3738884, -0.14642455, 0.027447945, 0.0025650181}, {0.20577013, -0.09213861, 0.2186351, -0.1888007}, {-0.07075254, 0.26038334, -0.04180198, 0.22539058}, {-0.09514273, -0.2039839, -0.29421383, 0.031161154}, {0.28273505, -0.06447063, -0.019135151, -0.16498563}, {0.02552854, -0.10235071, -0.13836531, -0.0069510927}, {-0.038660876, 0.16237062, -0.30728728, 0.20937267}, {0.22098805, 0.12945135, 0.109626874, -0.20104894}, {0.12996021, -0.1996774, -0.2607261, -0.018781282}, {-0.17261092, -0.13976447, 0.16233005, -0.33606628}, {-0.18165466, 0.064490646, 0.07145781, 0.2919996}, {-0.15972069, 0.0736129, 0.07915918, 0.24886975}, {0.13992566, -0.24405505, 0.17276672, -0.29788908}, {0.2245553, 0.08380836, 0.05561267, -0.30415007}, {0.30927122, -0.2977075, -0.14307392, -0.096363515}, {-0.14342245, -0.2594622, -0.059188783, -0.2722069}, {-0.067603186, -0.2011934, 0.19007687, 0.2230998}, {0.029909348, 0.24473892, -0.06481605, 0.12454232}, {-0.12965499, 0.011563041, 0.17873651, 0.25931817}, {0.35435972, -0.20528598, -0.2678315, -0.22768953}, {-0.16964735, 0.26626176, -0.32585204, -0.08806611}, {0.1161609, 0.09807821, -0.112690575, -0.23811164}, {-0.028801966, 0.044347156, -0.256171, -0.03834097}};

static float dense_bias[DENSE_UNITS]={-0.06238086, 0.015123702, 0.014651218, 0.025756713};
#endif // DENSE_H
