float ARR[256] = {{-0.06382032, -0.025905306, 0.0334481, 0.022084277, -0.0024875668, -0.021272196, -0.061937325, -0.015210529, 0.014621676, 0.020843104, 0.030816423, 0.03278004, -0.03717388, 0.0021656014, 0.019277181, -0.016006056, 0.0066453787, 0.014578294, 0.009046863, -0.008287882, -0.006520785, -0.028060697, -0.011976543, -0.04367488, -0.0074406713, -0.016997661, 0.014620141, -0.0156319, 0.008443705, -0.0028482324, -0.033728156, -0.053751778, 0.023863683, -0.022179302, -0.022099752, 0.011441003, 0.004164448, 0.0026182814, -0.013850529, 0.010677556, 0.056472067, 0.02231151, 0.01770734, -0.002171562, 0.033692177, 0.04436366, -0.026584312, 0.02346073, 0.01815339, 0.020336889, -0.009727752, 0.015929567, 0.014183021, 0.03460516, 0.030060867, -0.002100993, 0.020339454, -0.024502946, 0.0016998404, 0.0051344587, 0.024925707, 0.022334803, -0.02718502, 0.023149386, 1.0170377, 1.0691386, 1.0484569, 1.0318272, 1.015768, 1.0343988, 0.9895992, 1.0319169, 1.0284822, 0.99637944, 1.0333058, 1.0003842, 0.9820387, 1.0296637, 1.0258204, 1.0112998, 1.0053252, 1.0241262, 1.0280504, 1.0358876, 1.0453191, 1.0063058, 0.9961721, 1.1004515, 0.9871773, 1.0429592, 0.99882865, 1.0199702, 1.0788217, 0.9674085, 1.0461711, 1.008966, 1.0427526, 1.0056704, 1.0060235, 1.0702025, 1.0304743, 1.0074244, 1.0413411, 1.0103265, 1.0453076, 1.0311013, 1.0347146, 0.9728747, 0.9943654, 1.0081601, 1.0050323, 1.0048645, 1.0043515, 1.0431619, 1.009825, 1.0295359, 1.0344065, 1.0576276, 1.0376093, 0.9904648, 1.0385878, 1.012958, 1.049088, 1.0108438, 1.0225885, 1.0284057, 1.000312, 1.0258535, 0.01660166, -0.0005805383, 0.021123987, 0.0005412374, -0.0038238552, -0.009125605, 0.012004386, -0.012088925, -0.015806358, 0.021167336, 0.036763437, -0.0033971835, 0.0274977, 0.012471111, -0.03310821, 0.029963793, 0.00065273547, 0.012731441, 0.007774078, -0.03142163, -0.003951379, 0.02905862, 0.01162605, 0.007218589, -0.0064339275, -0.021615997, 0.0030460681, 0.012775511, -0.008196367, 0.05271519, 0.021365141, -0.0162298, 0.027510822, 0.028520131, -0.0054459684, 0.0006564815, -0.01568635, 0.014802133, -0.015780406, -0.033015087, 0.0009856418, -0.019338643, -0.044107575, 0.0017472673, -0.04783925, 0.0094980495, 0.003969761, -0.01018471, 0.008449652, -0.016470244, 0.0028666751, 0.0018721247, -0.023011042, 0.0058487207, 0.034208387, -0.00090529583, -0.023227863, 0.0041322364, -0.012421513, 0.027998548, -0.009545665, 0.016055742, 0.031873897, -0.0036918526, 0.023148926, 0.06478938, 0.021886084, 0.022338163, 0.002306454, 0.018544901, -0.01651813, -0.0031038204, 0.036727507, 0.029134812, 0.058746316, -0.03461418, -0.005724759, 0.009871732, 0.023757895, 0.013672612, 0.016776511, 0.031741265, 0.020706072, 0.002110142, 0.023573177, 0.02816726, -0.0124835875, 0.07065909, -0.022960901, 0.008711609, 0.015626157, 0.023607759, -0.008902779, -0.015681595, 0.03521945, 0.008716984, 0.039920915, 0.0017167487, 0.022741903, 0.03030218, 0.026372366, 0.0009024731, 0.045812998, 0.01484751, 0.02876143, 0.018747278, 0.03313304, -0.01028469, -0.018116666, 0.04110791, -0.0010539858, 0.0073273326, 0.010949722, 0.03701642, -0.009657776, 0.0076794922, 0.019533336, 0.056604516, 0.030256376, 0.018199397, 0.009467396, 0.015235442, 0.05283265, 0.03475963, 0.019408816, 0.036178365, -0.016441831, 0.005808319}};
